digraph Tree {
node [shape=box] ;
0 [label="loan level <= 0.5\ngini = 0.48\nsamples = 15\nvalue = [6, 9]"] ;
1 [label="has work <= 0.5\ngini = 0.32\nsamples = 5\nvalue = [4, 1]"] ;
0 -> 1 [labeldistance=2.5, labelangle=45, headlabel="True"] ;
2 [label="gini = 0.0\nsamples = 4\nvalue = [4, 0]"] ;
1 -> 2 ;
3 [label="gini = 0.0\nsamples = 1\nvalue = [0, 1]"] ;
1 -> 3 ;
4 [label="own house <= 0.5\ngini = 0.32\nsamples = 10\nvalue = [2, 8]"] ;
0 -> 4 [labeldistance=2.5, labelangle=-45, headlabel="False"] ;
5 [label="age <= 1.5\ngini = 0.4444\nsamples = 6\nvalue = [2, 4]"] ;
4 -> 5 ;
6 [label="has work <= 0.5\ngini = 0.4444\nsamples = 3\nvalue = [2, 1]"] ;
5 -> 6 ;
7 [label="gini = 0.0\nsamples = 2\nvalue = [2, 0]"] ;
6 -> 7 ;
8 [label="gini = 0.0\nsamples = 1\nvalue = [0, 1]"] ;
6 -> 8 ;
9 [label="gini = 0.0\nsamples = 3\nvalue = [0, 3]"] ;
5 -> 9 ;
10 [label="gini = 0.0\nsamples = 4\nvalue = [0, 4]"] ;
4 -> 10 ;
}